<?xml version="1.0"?>
<opencv_storage>
<opencv_ml_svm>
  <format>3</format>
  <svmType>C_SVC</svmType>
  <kernel>
    <type>LINEAR</type></kernel>
  <C>1.</C>
  <term_criteria><iterations>100</iterations></term_criteria>
  <var_count>9</var_count>
  <class_count>2</class_count>
  <class_labels type_id="opencv-matrix">
    <rows>2</rows>
    <cols>1</cols>
    <dt>i</dt>
    <data>
      0 1</data></class_labels>
  <sv_total>1</sv_total>
  <support_vectors>
    <_>
      -1.82431543e+00 3.22011471e+00 1.60712063e+00 -3.99457932e-01
      -7.96697363e-02 5.14639199e-01 -1.13770358e-01 -5.25996208e-01
      4.65243682e-02</_></support_vectors>
  <uncompressed_sv_total>200</uncompressed_sv_total>
  <uncompressed_support_vectors>
    <_>
      -5.55543415e-02 5.73704988e-02 3.32198814e-02 -1.14430403e-02
      -7.93931168e-03 -5.48910396e-03 9.55278706e-03 5.49350819e-03
      -1.43280299e-03</_>
    <_>
      -6.02031909e-02 4.42700200e-02 3.86261232e-02 -7.04670791e-03
      -7.31662894e-03 -9.01841279e-03 -3.05312104e-03 3.93000009e-05
      -6.26045093e-03</_>
    <_>
      -5.88228554e-02 3.64642292e-02 2.73254309e-02 -1.73317138e-02
      -2.28924826e-02 6.28027879e-03 2.96395598e-03 -8.36428814e-03
      -2.11653998e-04</_>
    <_>
      -5.88909164e-02 4.42211740e-02 3.37352343e-02 -1.00930706e-02
      -3.61145893e-03 9.61444434e-03 -2.03896803e-03 -7.92843569e-03
      -2.90813902e-03</_>
    <_>
      -2.66095866e-02 -1.73928253e-02 -3.75289358e-02 9.92197841e-02
      -3.97092141e-02 -1.78347751e-02 -8.20399374e-02 1.54758960e-01
      2.30263501e-01</_>
    <_>
      -5.46003394e-02 3.80790196e-02 2.75190957e-02 -2.13975161e-02
      4.21291078e-03 1.14029702e-02 -3.92861990e-03 1.64680299e-03
      -3.77920200e-03</_>
    <_>
      -5.56175597e-02 -2.16567554e-02 -2.00951705e-03 -5.85466810e-03
      -1.15436744e-02 9.58676264e-03 2.98880902e-03 4.44310112e-03
      -1.24177597e-02</_>
    <_>
      1.94661357e-02 1.07909873e-01 -8.75297114e-02 -7.49816820e-02
      1.48103861e-02 1.30555630e-01 -3.79277393e-02 4.95753391e-03
      -1.58717688e-02</_>
    <_>
      -5.80786318e-02 4.47247662e-02 3.81966196e-02 -1.69593748e-02
      -3.72351008e-03 6.59910915e-03 3.81148013e-04 -6.61630009e-04
      -4.38194396e-03</_>
    <_>
      -6.24516010e-02 -2.55411733e-02 -2.07036659e-02 2.00608699e-03
      -5.90872392e-03 -3.85060697e-03 -5.50160510e-03 -9.68799926e-03
      -4.93153185e-03</_>
    <_>
      -7.12195560e-02 -2.03007497e-02 -1.08662331e-02 -2.99040903e-03
      -6.23443210e-03 6.23524887e-03 6.59513986e-03 -1.77118205e-03
      -6.29528705e-03</_>
    <_>
      -7.33353023e-04 4.64634523e-02 -7.45182633e-02 -4.54965606e-02
      1.51200937e-02 -1.10299056e-02 -2.48704050e-02 1.80859200e-03
      -1.34634022e-02</_>
    <_>
      7.08709955e-02 1.16271347e-01 -1.37665197e-01 -7.62567446e-02
      4.81826216e-02 1.52949560e-02 -3.21658291e-02 1.92573126e-02
      -2.34358739e-02</_>
    <_>
      -5.84725030e-02 -3.98161523e-02 1.83751825e-02 2.70313991e-04
      -1.21599734e-02 2.48019991e-04 1.86645109e-02 -8.80644657e-03
      -1.74832798e-03</_>
    <_>
      -5.69565557e-02 -1.02847517e-02 -3.35177444e-02 1.75455529e-02
      4.43022419e-03 -8.16434529e-03 -3.47563811e-03 1.04423496e-03
      -1.19687319e-02</_>
    <_>
      -3.49648446e-02 1.08766451e-01 -5.24237342e-02 5.62462360e-02
      -8.15480053e-02 -2.67645586e-02 8.14911947e-02 2.14621313e-02
      6.85921777e-03</_>
    <_>
      -7.52526075e-02 -5.05766869e-02 9.67005920e-03 2.35182457e-02
      -2.29628235e-02 -6.27255009e-04 -5.49224876e-02 7.93900490e-02
      1.25072390e-01</_>
    <_>
      2.42925193e-02 2.00733647e-01 -2.28743348e-02 -7.71216303e-02
      -9.63171571e-02 7.86405988e-04 -4.54462208e-02 -3.26389931e-02
      -2.46694852e-02</_>
    <_>
      -6.65063635e-02 -4.22767410e-03 -8.21017381e-03 5.42636123e-03
      -2.25843899e-02 -9.79415979e-03 -2.21596938e-02 -9.41366889e-03
      1.75858801e-03</_>
    <_>
      -6.23336658e-02 -1.87177997e-04 -2.80616502e-03 -3.37999105e-03
      -1.80465840e-02 4.34538582e-03 1.03745870e-02 -9.29000016e-05
      -6.87616598e-03</_>
    <_>
      -6.62105158e-02 -8.13527033e-03 -7.72636896e-03 -1.91146601e-03
      -7.23563414e-03 4.97268979e-03 5.98177919e-03 -1.84040505e-03
      -6.20812178e-03</_>
    <_>
      -5.42053655e-02 1.54888853e-01 -7.74453506e-02 7.61246681e-02
      -8.75971019e-02 -1.08207874e-01 3.72069925e-02 -4.03715717e-03
      9.34008043e-03</_>
    <_>
      -3.96873243e-02 6.03918976e-04 -3.39133218e-02 3.36047891e-03
      -8.13509803e-03 6.02580886e-03 1.41126951e-02 4.81660105e-03
      5.14942501e-03</_>
    <_>
      1.60308275e-02 1.07935205e-01 -5.55936024e-02 -3.98415662e-02
      1.49271050e-02 4.82470281e-02 -3.38008404e-02 -2.32222341e-02
      8.22890271e-03</_>
    <_>
      -5.88379316e-02 5.58570623e-02 3.58384438e-02 3.24996014e-04
      -9.73840011e-04 -1.29999053e-02 5.77904284e-03 -3.54757998e-04
      -2.16082297e-03</_>
    <_>
      -3.74839529e-02 1.07552111e-02 -1.99528076e-02 1.03550982e-02
      -1.27625763e-02 -1.10103143e-02 -4.23607696e-03 9.81939025e-04
      -1.25714485e-02</_>
    <_>
      5.08334748e-02 6.87575042e-02 -9.17749200e-03 -3.65341827e-02
      -2.14125812e-02 -2.98719816e-02 -3.97208147e-02 -6.65094480e-02
      -1.90071797e-03</_>
    <_>
      -5.28310239e-02 -3.58037502e-02 3.91793111e-03 -8.49457178e-03
      -7.97254033e-03 1.32376784e-02 3.89739010e-03 3.80693399e-03
      9.81074944e-03</_>
    <_>
      -2.41139205e-03 8.50619525e-02 -5.71803153e-02 -1.37403682e-02
      -2.49835234e-02 -2.63348315e-02 -1.74121074e-02 -1.62663218e-02
      -8.12199712e-03</_>
    <_>
      -5.12559488e-02 -2.21920991e-03 -3.18269106e-03 -2.53430922e-02
      -1.69222467e-02 3.17507498e-02 -3.19296401e-03 -1.22074522e-02
      1.49536796e-03</_>
    <_>
      -6.00039288e-02 3.34380120e-02 3.61240059e-02 -1.73198860e-02
      -1.25083309e-02 1.78185664e-02 2.38374597e-03 -6.94062002e-03
      -2.86413194e-03</_>
    <_>
      -4.76447083e-02 -8.56219325e-03 -7.74814608e-03 -1.36226127e-02
      -1.47906719e-02 9.95215960e-03 5.09534497e-03 -3.69529310e-03
      -5.93551993e-03</_>
    <_>
      -6.00509457e-02 -9.61450394e-03 -3.04343179e-02 5.95647795e-03
      -8.28882121e-03 -2.19976995e-04 1.87253598e-02 1.09547237e-02
      -6.60657999e-04</_>
    <_>
      -8.28846998e-04 1.06268540e-01 -1.30411267e-01 -2.52289865e-02
      -1.46416703e-03 8.62753838e-02 -1.15212062e-02 2.20373347e-02
      -2.62696873e-02</_>
    <_>
      -3.54279540e-02 -3.06728128e-02 2.83008404e-02 2.20359769e-02
      -1.33946761e-02 1.60908401e-02 -1.51015073e-02 2.40178015e-02
      1.50832990e-02</_>
    <_>
      -1.02460962e-02 4.71986420e-02 -1.06398001e-01 -5.44400364e-02
      2.66063977e-02 2.59601455e-02 -6.64462969e-02 8.09302460e-03
      -3.88208739e-02</_>
    <_>
      -1.49607863e-02 6.02543494e-03 -8.92717168e-02 1.06092906e-02
      4.11118455e-02 -6.77257553e-02 -1.90154705e-02 -2.09042616e-02
      7.95485172e-03</_>
    <_>
      -1.76298209e-02 8.43665451e-02 -1.83173325e-02 -4.54508848e-02
      -3.21152546e-02 3.07488553e-02 -1.54776983e-02 -1.40954377e-02
      -8.64774734e-03</_>
    <_>
      -6.76698089e-02 -6.76980009e-03 2.43233740e-02 -1.15059121e-02
      1.15958573e-02 1.19011691e-02 8.49137921e-03 5.23457723e-03
      -5.03487187e-03</_>
    <_>
      1.40912831e-02 8.94252397e-03 1.64245032e-02 -5.77152707e-02
      -9.02493205e-03 -7.13917287e-03 2.56184023e-02 1.61846988e-02
      -1.14691997e-04</_>
    <_>
      -4.60079461e-02 2.31073555e-02 1.96981579e-02 -3.33441608e-02
      -1.73509605e-02 6.71930891e-03 -1.41628901e-03 -5.80361905e-03
      -4.97791218e-03</_>
    <_>
      -6.52524456e-02 -1.47154965e-02 -4.41822177e-03 -4.18011192e-03
      -1.03034060e-02 3.98071902e-03 8.34225863e-03 -1.85039395e-03
      -4.88977088e-03</_>
    <_>
      -6.25244007e-02 3.91386859e-02 4.41673882e-02 -9.22868215e-03
      1.95231405e-03 4.80752904e-03 -1.34601805e-03 -5.17719099e-03
      -3.45829898e-03</_>
    <_>
      -4.42581177e-02 4.10058582e-03 -3.04532442e-02 3.91575769e-02
      -1.62033346e-02 -1.83018986e-02 4.25908193e-02 -1.00544398e-03
      8.67388397e-03</_>
    <_>
      -4.82290760e-02 -2.74818372e-02 2.71933805e-03 -1.23536251e-02
      -3.86310602e-03 1.23728039e-02 6.93610683e-03 8.42360023e-04
      -6.11865020e-04</_>
    <_>
      -6.53162748e-02 -1.92859378e-02 -5.66763617e-03 -1.00531643e-02
      -4.68840310e-03 7.65633909e-03 4.73107491e-03 -2.62950012e-03
      -5.76394098e-03</_>
    <_>
      -5.92441298e-02 -1.93985365e-02 1.72251006e-04 -5.43861417e-03
      -1.15384227e-02 1.14465421e-02 1.48653495e-03 -1.04106998e-03
      -3.66673898e-03</_>
    <_>
      -5.97941205e-02 -1.98030639e-02 -8.06070305e-03 -1.65467896e-03
      -1.04920780e-02 6.94593182e-03 9.71214101e-03 1.32553000e-03
      -1.66561804e-03</_>
    <_>
      -6.87038302e-02 -1.41002247e-02 5.22264512e-03 -1.55766495e-02
      -1.57254580e-02 8.32446571e-03 4.28198185e-03 -3.93491611e-03
      -5.65505214e-03</_>
    <_>
      -5.09896651e-02 -1.35245519e-02 -6.85471203e-03 -1.18190963e-02
      -5.90058323e-03 9.80513357e-03 1.18296698e-03 1.57806696e-03
      -6.72068493e-03</_>
    <_>
      -6.98705986e-02 3.40407863e-02 2.24486999e-02 -2.41239509e-03
      -2.19480395e-02 -2.92308573e-02 3.09266103e-03 -4.63960413e-03
      5.11916995e-04</_>
    <_>
      -6.21116795e-02 3.65601256e-02 3.87098230e-02 -1.29582398e-02
      -6.89134607e-03 3.79525009e-04 1.09175999e-04 -1.67381205e-03
      -6.45415112e-03</_>
    <_>
      -8.23840201e-02 6.63604066e-02 -1.72179732e-02 5.45884147e-02
      -4.23565581e-02 -8.69958941e-03 5.32119721e-02 6.12911012e-04
      9.23953019e-03</_>
    <_>
      -5.49771190e-02 5.31497560e-02 3.39849629e-02 -1.27476053e-02
      -2.88305804e-03 -1.37139403e-03 1.04496190e-02 7.79911922e-03
      -2.01848894e-03</_>
    <_>
      -6.62755370e-02 -4.85473080e-03 -1.44777000e-02 1.57462200e-03
      -8.57768301e-03 1.74185098e-03 5.93792181e-03 -3.39292898e-03
      -7.82294571e-03</_>
    <_>
      -6.83299229e-02 -4.25895788e-02 3.33247590e-03 1.11818104e-03
      -7.07146805e-03 -2.46424903e-03 -2.92562693e-03 -1.45953696e-03
      1.37831587e-02</_>
    <_>
      -4.79027964e-02 3.10133211e-02 2.09248699e-02 -3.89373638e-02
      -2.98286844e-02 1.46261998e-04 7.22864992e-04 -9.15931014e-04
      -5.72009105e-03</_>
    <_>
      1.16600348e-02 1.04312636e-01 1.00326397e-01 -1.23645470e-01
      -9.59352925e-02 -1.51953369e-01 -2.45002704e-03 3.62292975e-02
      5.46882488e-03</_>
    <_>
      -7.09543154e-02 -1.30443778e-02 -7.82908965e-03 -5.21228090e-03
      -1.28617939e-02 4.80613811e-03 4.58406890e-03 -3.13885510e-03
      -7.49257393e-03</_>
    <_>
      -5.37701361e-02 -2.34900247e-02 -5.42126596e-03 -1.65759213e-02
      -4.25075321e-03 5.79833612e-03 4.10121400e-03 -6.49656216e-03
      9.10000017e-06</_>
    <_>
      8.36137310e-03 2.08611768e-02 -5.14965802e-02 -6.63965987e-03
      1.74881648e-02 -1.39597971e-02 8.40168446e-03 -1.82258505e-02
      7.64012197e-03</_>
    <_>
      5.98544553e-02 1.79037601e-01 -1.69633284e-01 8.93745979e-04
      -1.21088270e-02 -2.13500601e-03 4.12343778e-02 2.27381848e-02
      -7.95445219e-03</_>
    <_>
      -3.75052392e-02 2.91902535e-02 -5.69248013e-03 -3.20581943e-02
      -1.37430383e-02 4.16309647e-02 -1.49763683e-02 -2.32955124e-02
      2.14956095e-03</_>
    <_>
      -6.09600767e-02 -2.18416825e-02 -7.62694515e-03 -1.50536373e-02
      -6.31905207e-03 7.59190787e-03 8.39419011e-03 -2.59768014e-04
      -6.63668709e-03</_>
    <_>
      -5.97660281e-02 -2.86009368e-02 -1.05089769e-02 5.56465797e-03
      6.09943178e-03 1.65767898e-03 3.16938997e-04 -6.19923987e-04
      -6.86093187e-03</_>
    <_>
      7.57929403e-03 6.45300001e-02 -4.50062826e-02 1.21374533e-01
      -2.97039617e-02 -4.68259044e-02 -1.97887681e-02 -1.39095169e-02
      -2.03866102e-02</_>
    <_>
      -5.97761273e-02 -8.94824509e-03 -5.66119794e-03 -2.47672689e-03
      -1.31596802e-02 2.75146496e-03 5.56412200e-03 -1.19243003e-03
      -4.17339988e-03</_>
    <_>
      4.40026075e-02 4.25121725e-01 -9.57475156e-02 5.37742265e-02
      -1.70368850e-01 -2.27270201e-02 6.23483993e-02 -2.42767725e-02
      -3.71184410e-03</_>
    <_>
      -2.24036425e-02 1.43906817e-01 -5.54435290e-02 6.71019778e-02
      -9.90650356e-02 -3.38502787e-02 1.03279680e-01 3.71121466e-02
      6.70033880e-03</_>
    <_>
      -6.09009154e-02 -1.08239905e-03 1.63696997e-04 -5.97245386e-03
      -1.79934185e-02 5.08875994e-04 -7.65000004e-05 -3.20641208e-03
      -8.50408245e-03</_>
    <_>
      -6.17981255e-02 -1.57297365e-02 -4.70729405e-03 -3.65071208e-03
      -1.14221210e-02 3.71809304e-03 5.60850184e-03 -1.03476294e-03
      -3.27803590e-03</_>
    <_>
      -5.99844493e-02 3.12982723e-02 3.66596803e-02 -1.76255815e-02
      -7.67381396e-03 5.48680080e-03 -3.54405987e-04 -2.96606589e-03
      -5.68750408e-03</_>
    <_>
      -5.65566570e-02 3.37908939e-02 2.92983223e-02 -1.95789076e-02
      -9.92468279e-03 4.95782006e-04 3.06440191e-03 1.16744498e-03
      -4.71235998e-03</_>
    <_>
      2.40851138e-02 -9.91945900e-03 4.08258215e-02 -2.69675790e-03
      -3.95819917e-02 -1.09043280e-02 -8.02116375e-03 2.83771791e-02
      -8.68373830e-03</_>
    <_>
      -4.69276570e-02 1.75790500e-03 9.62296128e-03 -2.98139290e-03
      -2.20471025e-02 -8.56438838e-03 -1.00652901e-02 9.69160814e-03
      3.52298911e-03</_>
    <_>
      -6.65480644e-02 -1.35469995e-02 -6.40131813e-03 -2.95286998e-03
      -6.50857994e-03 5.97423501e-03 2.20581307e-03 -3.89240892e-03
      -6.61949208e-03</_>
    <_>
      -6.50101975e-02 -1.28695136e-02 -7.94675760e-03 -1.64551995e-04
      -1.32594537e-02 6.44284580e-03 1.98330404e-03 -1.52351800e-03
      -6.18024077e-03</_>
    <_>
      -5.54709956e-02 5.08583300e-02 3.39079909e-02 -1.42591717e-02
      -4.38202685e-03 -1.34000002e-05 6.04515616e-03 2.19607796e-03
      -7.83993979e-04</_>
    <_>
      4.45440829e-01 5.48335128e-02 -1.18330605e-01 3.57113093e-01
      -6.98187351e-02 -7.37622678e-02 -1.05399653e-01 8.58557224e-02
      -1.46596283e-01</_>
    <_>
      -6.02512024e-02 3.14685330e-02 3.63771133e-02 -1.47503279e-02
      -6.25583017e-03 8.65852833e-03 -1.77703099e-03 -4.99370601e-03
      -6.29533315e-03</_>
    <_>
      -5.73945157e-02 4.55406271e-02 3.48084383e-02 -8.03184975e-03
      4.47087595e-03 1.25318356e-02 -8.35727807e-03 -1.45912990e-02
      7.23397010e-04</_>
    <_>
      -5.70469424e-02 3.95784117e-02 4.09936756e-02 -1.48820989e-02
      -2.35947408e-03 -8.86772200e-03 -7.33727007e-04 -5.17000008e-05
      -6.37088995e-03</_>
    <_>
      -6.58048764e-02 -1.78551488e-02 4.54992987e-04 -1.68500897e-02
      -1.30872764e-02 6.44387212e-03 3.88269196e-03 -3.33833508e-03
      -5.72832394e-03</_>
    <_>
      1.90590620e-01 1.31983384e-01 -4.74504614e-03 -1.43330604e-01
      -1.30674541e-02 -2.09993292e-02 7.90990144e-03 2.96288561e-02
      -2.00826060e-02</_>
    <_>
      -6.40491396e-02 -1.43852476e-02 -2.50275107e-03 -9.87296179e-03
      -1.03307618e-02 6.99396199e-03 7.74128921e-03 -2.56330497e-03
      -5.09611098e-03</_>
    <_>
      -5.04050404e-02 3.69907469e-02 1.32177304e-03 2.40944698e-03
      -4.15529944e-02 -3.58953886e-02 2.13439390e-03 3.26068210e-03
      -4.39041993e-03</_>
    <_>
      -5.96193857e-02 -3.44435088e-02 -3.48184304e-03 3.21325992e-04
      5.97519102e-03 8.26086290e-03 5.33288810e-03 2.23754300e-03
      -6.01312192e-03</_>
    <_>
      1.26046604e-02 8.03475082e-02 -6.12768419e-02 -6.86938837e-02
      5.33842016e-03 5.81282713e-02 -3.13149504e-02 9.57620889e-03
      -1.90893132e-02</_>
    <_>
      -6.03770018e-02 4.68071625e-02 3.61036099e-02 -9.01336130e-03
      -9.38467588e-03 -1.09312423e-02 4.38936101e-03 -2.12574610e-03
      -1.17967103e-03</_>
    <_>
      1.07603036e-02 7.70278201e-02 7.34527707e-02 -1.03575729e-01
      -7.39034116e-02 -6.82672858e-02 9.61862598e-03 2.88946852e-02
      -5.17947180e-03</_>
    <_>
      1.76264625e-02 1.16006814e-01 2.31534876e-02 -9.11918357e-02
      -6.88057765e-02 -2.04690453e-02 -2.20334753e-02 -9.30746179e-03
      -1.18830018e-02</_>
    <_>
      -4.89295982e-02 -2.19443329e-02 -3.14335106e-03 -1.05630280e-02
      -7.19265081e-03 9.59456246e-03 3.84228909e-03 3.98996519e-03
      -1.02148904e-02</_>
    <_>
      4.93831281e-03 3.56739461e-02 -5.75511530e-02 3.62338196e-03
      -9.04708984e-04 -9.31403227e-03 -1.49118001e-04 -2.25241128e-02
      1.37337204e-03</_>
    <_>
      -6.05746321e-02 6.40498176e-02 8.53319746e-03 1.90606918e-02
      3.73125495e-03 3.22396122e-02 2.54363082e-02 7.06219580e-03
      -5.45005023e-04</_>
    <_>
      -6.03365675e-02 -2.75587104e-02 -1.20021561e-02 9.11534019e-03
      4.56500612e-03 -1.06278202e-03 2.78308708e-03 2.25594995e-04
      -6.18204987e-03</_>
    <_>
      1.37078121e-01 1.27721682e-01 -2.25987434e-01 5.41773029e-02
      1.03738457e-01 9.33696609e-03 6.86326623e-02 1.00236617e-01
      5.98852988e-03</_>
    <_>
      -4.25056964e-02 -3.75535563e-02 3.04525383e-02 1.54517358e-02
      -4.62706126e-02 8.56011990e-04 -5.02024405e-02 5.52533045e-02
      7.22126886e-02</_>
    <_>
      -5.87943085e-02 -1.98030323e-02 -4.55722492e-03 -5.21497615e-03
      -1.08427200e-02 9.51181818e-03 3.02696694e-03 5.33498998e-04
      -3.87912802e-03</_>
    <_>
      -5.41996732e-02 -1.36199659e-02 -2.99697109e-02 1.09995808e-02
      3.36878700e-03 7.82469986e-04 8.45040020e-04 2.66221911e-03
      -9.22462530e-03</_>
    <_>
      -5.99666089e-02 -1.43093672e-02 -8.63340776e-03 -9.03261825e-03
      -8.32843967e-03 6.00084290e-03 4.16194001e-04 -5.71988709e-03
      -5.35699679e-03</_>
    <_>
      -4.83912192e-02 -1.92104392e-02 -6.49779523e-03 -1.27498005e-02
      -4.69631981e-03 1.03489337e-02 3.96573916e-03 4.01545409e-03
      -1.10170506e-02</_>
    <_>
      -3.17306817e-02 1.51071707e-02 -4.58007306e-02 -1.33418497e-02
      2.39270907e-02 1.39243230e-02 -3.43249994e-03 7.54694082e-03
      9.89754591e-03</_>
    <_>
      -8.38555247e-02 2.14778438e-01 -1.13092043e-01 2.07691908e-01
      -8.22409615e-03 -1.64501257e-02 1.35746762e-01 5.47051914e-02
      2.84831598e-02</_>
    <_>
      -1.80292856e-02 -1.44037930e-02 -1.78613346e-02 -1.34266550e-02
      1.14015527e-02 -2.10652989e-03 2.29248442e-02 9.84592270e-03
      -1.96896307e-03</_>
    <_>
      -5.83964996e-02 -8.45955964e-03 -3.72465700e-02 9.99999975e-06
      -4.38569579e-03 -9.69116983e-04 1.81445095e-03 8.49277060e-03
      -9.59374011e-04</_>
    <_>
      -6.19587973e-02 3.75355259e-02 2.62795147e-02 -9.42896772e-03
      9.41883679e-03 3.02502532e-02 -1.05473800e-02 -1.22294314e-02
      9.13869997e-04</_>
    <_>
      -5.51324114e-02 3.54289785e-02 1.88643374e-02 -1.46303736e-02
      -1.07833846e-02 4.83585987e-04 9.57781263e-03 1.12409599e-03
      -1.95173803e-03</_>
    <_>
      -6.36226311e-02 4.46977802e-02 2.52946839e-02 -2.39765900e-03
      -3.27779999e-04 1.95513498e-02 1.37902400e-03 -5.85159007e-03
      -7.47007027e-04</_>
    <_>
      -4.97559868e-02 -1.32812550e-02 -1.91193409e-02 -1.59282275e-02
      1.41852703e-02 2.26239171e-02 -3.93341901e-03 1.26766507e-02
      7.17052026e-04</_>
    <_>
      -5.53362072e-02 -1.96613763e-02 -1.42613128e-02 -1.24746012e-02
      -6.18863385e-03 1.24348989e-02 7.82710034e-03 4.30278294e-03
      5.27646579e-03</_>
    <_>
      -6.74535707e-02 6.37329072e-02 1.27833392e-02 2.08358243e-02
      -2.35518403e-02 -7.07900012e-03 3.63801271e-02 7.22952094e-03
      1.96779007e-03</_>
    <_>
      -6.69741333e-02 -3.56490836e-02 -1.04058236e-02 -2.08792789e-03
      -2.40989099e-03 -6.08229777e-03 -1.10509302e-02 -3.84075008e-03
      6.59237616e-03</_>
    <_>
      -6.01718351e-02 -1.97394677e-02 -4.51153703e-03 -1.19056292e-02
      -5.33999992e-06 6.03084499e-03 4.54214495e-03 -2.94509996e-03
      -3.89905297e-03</_>
    <_>
      -4.20146175e-02 4.71040420e-03 -6.15662225e-02 2.16031931e-02
      2.02105436e-02 -5.18138893e-02 -3.49475853e-02 -3.34897898e-02
      -6.92797010e-04</_>
    <_>
      -4.37569711e-03 5.83981909e-02 -8.09968561e-02 -5.04988506e-02
      1.98503714e-02 5.79397865e-02 -4.49250601e-02 2.93814968e-02
      7.33216002e-04</_>
    <_>
      2.92714704e-02 9.32351574e-02 -5.80303483e-02 -4.67840135e-02
      -1.08802104e-02 -3.02218776e-02 -2.60600192e-03 -6.68350607e-03
      -3.73502000e-04</_>
    <_>
      -6.15774840e-02 2.70468183e-02 3.54284234e-02 -1.40580162e-02
      -1.12525998e-02 3.51865799e-03 6.47336012e-04 -9.45551787e-03
      -2.64685089e-03</_>
    <_>
      -1.41041763e-02 2.42851005e-04 4.39915769e-02 -3.55670229e-02
      -3.25014070e-02 -3.04387603e-02 1.46225234e-02 1.09494654e-02
      -6.08700002e-03</_>
    <_>
      6.81832284e-02 4.97222058e-02 2.55895965e-02 2.88445186e-02
      1.22235887e-01 -1.94032509e-02 3.68494494e-03 -2.92328913e-02
      4.15527821e-02</_>
    <_>
      -5.39766140e-02 -1.53764123e-02 -1.18452040e-02 -1.08222747e-02
      -7.72134401e-03 6.04142481e-03 7.64276320e-03 2.46786093e-03
      -5.09467488e-03</_>
    <_>
      -6.24442324e-02 -3.18968203e-03 1.08703673e-02 -1.61085147e-02
      -2.59945765e-02 2.15243697e-02 4.67946287e-03 -5.56911901e-03
      7.88736972e-04</_>
    <_>
      -5.07294238e-02 -2.72246893e-03 -9.36398469e-03 -2.35963892e-03
      -1.76561028e-02 3.24505003e-04 8.18394125e-03 -6.69147819e-03
      -4.51438781e-03</_>
    <_>
      -5.67780100e-02 -2.07448155e-02 -4.29823622e-03 -1.03437407e-02
      -8.25616159e-03 1.32244900e-02 1.15493999e-03 2.62992806e-03
      -5.49600879e-03</_>
    <_>
      -3.36877606e-03 9.15711001e-02 -1.68952383e-02 -4.37652171e-02
      -5.31127155e-02 3.86668369e-02 -3.79086509e-02 -1.88649688e-02
      7.20203388e-03</_>
    <_>
      -5.88834584e-02 4.97285202e-02 3.46736386e-02 -1.02997068e-02
      6.20479987e-04 8.97407159e-03 -2.81878002e-03 -2.98507512e-03
      -3.47017497e-03</_>
    <_>
      -2.27297358e-02 -4.16146107e-02 2.06094943e-02 2.56255511e-02
      -3.91115062e-02 7.85221439e-03 -3.77748981e-02 4.60914634e-02
      5.14603592e-02</_>
    <_>
      2.86765909e-03 5.07468060e-02 -5.40287979e-02 2.06574704e-03
      2.76361196e-03 -3.06547899e-03 -3.77040706e-03 -2.56926250e-02
      9.33600590e-03</_>
    <_>
      -6.04758523e-02 4.35644165e-02 3.35358493e-02 -1.19731724e-02
      -6.18640007e-03 1.25495403e-03 -6.59192912e-03 -6.61705993e-03
      -4.44660289e-03</_>
    <_>
      -6.45539165e-02 3.24019566e-02 2.10723300e-02 -9.51230805e-03
      2.07782211e-03 2.05761399e-02 -8.49018525e-03 -7.59028783e-03
      -2.49564089e-03</_>
    <_>
      2.16965284e-02 8.62410963e-02 -6.28341287e-02 -2.31010132e-02
      -1.24572348e-02 -1.16040241e-02 6.06353208e-03 -1.18894018e-02
      4.16434510e-03</_>
    <_>
      9.63854510e-03 2.36747001e-04 3.27768624e-02 -7.86573905e-03
      -3.67308520e-02 1.09571917e-02 -1.76198464e-02 1.91805046e-02
      -1.61001598e-03</_>
    <_>
      -5.72857000e-02 4.50270027e-02 4.85845320e-02 -1.45800821e-02
      2.12796032e-02 1.17483307e-02 -8.03648774e-03 3.70939705e-03
      -7.80759705e-03</_>
    <_>
      -4.79667000e-02 -1.74274389e-02 -9.18302964e-03 -1.83842648e-02
      -2.93322792e-03 1.92589518e-02 2.44110310e-03 2.77985889e-03
      -9.51132085e-03</_>
    <_>
      -5.47212511e-02 -2.95830723e-02 -2.79240101e-03 -6.68239594e-03
      -3.54785193e-03 7.92326778e-03 1.47711005e-04 -7.76483491e-03
      -1.41987903e-03</_>
    <_>
      -4.17374913e-03 4.51944992e-02 -3.30401622e-02 -4.58135419e-02
      1.27433694e-03 3.79966125e-02 -4.06558588e-02 -3.24271359e-02
      7.55676010e-04</_>
    <_>
      -5.86820468e-02 -1.69284269e-02 -2.32388116e-02 1.29191764e-02
      6.19173283e-03 -5.54671604e-03 -3.11055989e-03 8.23487004e-04
      -9.02437419e-03</_>
    <_>
      -6.87016025e-02 -4.34275307e-02 4.60670982e-03 1.18907494e-03
      -8.29740707e-03 -1.19794905e-03 -1.60274201e-03 -9.91928973e-04
      1.30702471e-02</_>
    <_>
      -5.92626557e-02 3.09477821e-02 2.04538237e-02 -1.38279172e-02
      -1.55281564e-02 1.48340380e-02 6.56361179e-03 -4.76085208e-03
      -2.09384598e-03</_>
    <_>
      -3.86670977e-02 -2.39293706e-02 9.22210701e-03 9.98055283e-03
      1.75172817e-02 -1.73546784e-02 6.24506781e-03 7.35062989e-04
      4.88304486e-03</_>
    <_>
      6.92069754e-02 6.17779978e-02 -1.08866990e-01 -3.97358760e-02
      5.17726205e-02 -3.45301479e-02 -3.06928568e-02 -1.62624512e-02
      -5.81288384e-03</_>
    <_>
      -4.14810851e-02 1.02225449e-02 1.16605982e-02 -3.84572498e-03
      -2.00728383e-02 -4.48945118e-03 -1.23130865e-02 9.87037085e-03
      5.07476320e-03</_>
    <_>
      -5.49456738e-02 -1.45863034e-02 -2.83721294e-02 -6.37047691e-03
      -2.03575706e-03 1.50448503e-03 -1.41759100e-03 8.67961906e-03
      9.05402098e-03</_>
    <_>
      -6.42035604e-02 3.56931277e-02 4.55110222e-02 -6.21536700e-03
      6.18000794e-03 -8.37286003e-04 4.42113989e-04 -2.84649408e-03
      -3.31131509e-03</_>
    <_>
      -5.73012047e-02 -3.61700892e-03 -1.13672009e-02 -3.27038812e-03
      -1.22715812e-02 4.02907003e-03 2.37555290e-03 -2.14272807e-03
      -6.10010698e-03</_>
    <_>
      -4.41471450e-02 -3.05979941e-02 6.50097523e-03 7.14629516e-03
      -1.84829514e-02 1.55750420e-02 3.59119009e-03 1.31262317e-02
      4.26107598e-03</_>
    <_>
      -5.45742810e-02 -3.31483558e-02 -7.56249297e-03 -9.99141205e-03
      -2.42717797e-03 1.24281924e-02 2.70306598e-03 -4.02338104e-03
      -1.98948896e-03</_>
    <_>
      -6.60552457e-02 3.75166275e-02 4.15427312e-02 -6.34098193e-03
      -1.13202212e-02 -1.56023651e-02 1.10889617e-02 4.52356879e-03
      -4.00506100e-03</_>
    <_>
      -6.19159006e-02 3.36039029e-02 4.10416014e-02 -9.43271443e-03
      -5.87662216e-03 -8.30687024e-03 6.47201017e-03 3.21037392e-03
      -7.72494823e-03</_>
    <_>
      -5.04704528e-02 -3.37245804e-03 -9.12012625e-03 8.90435744e-03
      -3.15053016e-02 -1.87152997e-03 7.38062477e-03 -1.26899395e-03
      -3.17281997e-03</_>
    <_>
      -6.29681125e-02 4.32376005e-02 4.23847884e-02 -5.55485720e-03
      3.02252593e-03 7.22302997e-04 -2.77251494e-03 -5.78877702e-03
      -3.36902798e-03</_>
    <_>
      -4.21243384e-02 -2.33213771e-02 7.93728046e-03 1.59188509e-02
      1.43697811e-02 -1.21984538e-02 9.51611064e-03 -5.48363104e-03
      7.64772017e-03</_>
    <_>
      -2.99367798e-03 6.77732974e-02 -4.20217291e-02 -4.06508036e-02
      -4.82697375e-02 3.36051956e-02 -1.17563494e-01 9.24863666e-03
      6.02512695e-02</_>
    <_>
      -5.20728827e-02 -2.06636004e-02 -8.41300935e-03 -1.33592300e-02
      -1.43320300e-03 6.45554299e-03 5.34850406e-03 -2.16774200e-03
      -4.69652517e-03</_>
    <_>
      -6.15900531e-02 3.11289318e-02 4.73473817e-02 -1.61363296e-02
      1.67288794e-03 3.83224105e-03 -5.24015981e-04 3.65999995e-06
      -6.45104796e-03</_>
    <_>
      -6.56599877e-03 1.81781337e-01 -1.20840788e-01 3.32903713e-02
      6.11498207e-02 6.15311041e-02 3.32273496e-03 3.34466398e-02
      -1.57567300e-02</_>
    <_>
      -4.42689322e-02 3.28269089e-03 -2.65246015e-02 1.03935571e-02
      2.20247712e-02 7.31015997e-03 2.40105987e-02 -2.49541691e-03
      1.15992017e-02</_>
    <_>
      -6.68211505e-02 -3.26670008e-03 6.45442912e-03 -1.19290343e-02
      -1.98526066e-02 3.86387203e-03 4.84732399e-03 -3.69507796e-03
      -5.02158608e-03</_>
    <_>
      -3.43333744e-02 1.50219770e-02 1.25453910e-02 -1.01697706e-02
      -2.04641111e-02 -6.02635322e-03 -1.19643742e-02 9.11038183e-03
      2.45239190e-03</_>
    <_>
      -4.72482629e-02 6.52748975e-04 -3.79252695e-02 4.23210636e-02
      -9.76149924e-03 2.59137899e-03 4.42495719e-02 1.21900532e-02
      1.25224069e-02</_>
    <_>
      -6.24802560e-02 3.45175005e-02 4.11015786e-02 -9.73787624e-03
      -3.32513102e-03 -3.87143111e-03 1.95446610e-03 -1.64901998e-04
      -6.66516321e-03</_>
    <_>
      -5.29279970e-02 -1.84398741e-02 -6.04801113e-03 -1.07371612e-02
      -7.51767494e-03 6.63863216e-03 5.01511013e-03 -4.48989013e-04
      -2.49898201e-03</_>
    <_>
      -5.31430580e-02 -1.74603313e-02 -4.07151179e-03 -5.65521000e-03
      -1.10097099e-02 8.47657491e-03 1.55131903e-03 1.15029304e-03
      -1.45114399e-03</_>
    <_>
      -5.19815795e-02 -2.57439669e-02 -5.69587620e-03 -1.06760990e-02
      -2.33875192e-03 6.29107980e-03 1.18084997e-03 2.48170202e-03
      -6.33655116e-03</_>
    <_>
      -6.14931956e-02 4.72504944e-02 3.83567065e-02 -1.00707998e-02
      -2.79209693e-03 -7.41544995e-04 -4.05885186e-03 -2.02611694e-03
      -6.30326802e-03</_>
    <_>
      -5.71885370e-02 4.29699197e-02 3.37516330e-02 -1.52684599e-02
      -9.57044587e-03 -4.25944012e-03 8.32004007e-03 5.93697885e-03
      -4.51921113e-03</_>
    <_>
      -7.28565231e-02 -2.41739433e-02 -6.51662285e-03 -7.69077800e-03
      -1.00136353e-02 1.01612611e-02 4.30089002e-03 -4.32941597e-03
      -6.56039221e-03</_>
    <_>
      -5.77611215e-02 -8.02184083e-03 1.19984499e-03 -1.57569777e-02
      -1.49111552e-02 7.78048905e-03 4.55724308e-03 -5.64665999e-04
      -6.70967298e-03</_>
    <_>
      -5.40597551e-02 -6.04909705e-03 -2.42741257e-02 2.42286846e-02
      -1.17886057e-02 1.59777049e-02 3.67689095e-02 -2.49074609e-03
      9.51799378e-03</_>
    <_>
      -7.76416808e-02 8.11813772e-02 -6.72659352e-02 7.79583380e-02
      -5.60582429e-02 -5.62770404e-02 4.00063209e-02 -2.06394400e-03
      1.67427305e-03</_>
    <_>
      -6.32728711e-02 3.56363766e-02 2.71716956e-02 -6.73707481e-03
      3.59339989e-04 2.16521826e-02 -5.84730785e-03 -1.38836289e-02
      -2.69406999e-04</_>
    <_>
      -4.80613969e-02 -2.63306089e-02 -1.19676697e-03 -1.05199767e-02
      7.58358976e-04 7.70935323e-03 2.45062308e-03 3.69858509e-03
      -5.36255306e-03</_>
    <_>
      -3.86426263e-02 -2.37689037e-02 3.12873698e-03 2.00971626e-02
      7.67156202e-03 1.80498902e-02 3.29997111e-03 9.77691077e-03
      4.67219483e-03</_>
    <_>
      -5.85330836e-02 -1.47842001e-02 -2.89823916e-02 1.37310503e-02
      3.13108810e-03 -5.68519812e-03 -2.39929697e-03 -1.57287496e-03
      -9.78618581e-03</_>
    <_>
      -5.34802675e-02 -1.80386808e-02 -2.15548817e-02 -1.14890998e-02
      -8.26722011e-04 9.25973430e-03 8.92551802e-03 1.00410422e-02
      -2.63999991e-05</_>
    <_>
      -6.71630800e-02 -1.97689775e-02 -2.25502695e-03 -1.35076176e-02
      -6.50282623e-03 7.39238085e-03 2.67394795e-03 -2.95914407e-03
      -6.59144996e-03</_>
    <_>
      -6.07115142e-02 4.09349203e-02 3.57369520e-02 -1.24653447e-02
      -1.82785501e-03 1.37957307e-02 -4.42188990e-04 -2.52917409e-03
      -3.62627092e-03</_>
    <_>
      -6.22990392e-02 3.66696492e-02 4.85117808e-02 -9.92170162e-03
      2.05070409e-03 -6.58263592e-03 2.03546393e-03 3.01955198e-03
      -9.44950804e-03</_>
    <_>
      -6.10223189e-02 -2.77353711e-02 -9.96179413e-03 9.12819244e-03
      5.64091187e-03 -3.02032800e-03 5.94999983e-05 -1.21116498e-03
      -5.43216197e-03</_>
    <_>
      4.48436961e-02 6.46631047e-02 -6.91293702e-02 -1.70660019e-02
      -9.72999987e-05 -1.12054478e-02 -3.14795449e-02 -2.91656461e-02
      -1.40081095e-02</_>
    <_>
      -5.78619204e-02 -1.77468024e-02 -2.31199265e-02 1.21762464e-02
      5.05215302e-03 -2.44028796e-03 -1.65837305e-03 1.58748997e-04
      -8.74042232e-03</_>
    <_>
      -6.58673719e-02 3.87988798e-02 4.12840359e-02 -4.88471985e-03
      -8.26667622e-03 -1.07486518e-02 8.67527723e-03 2.88075907e-03
      -4.53272182e-03</_>
    <_>
      2.23268732e-01 1.11396000e-01 1.65736396e-02 -1.25403106e-01
      -4.59171087e-03 -5.79238944e-02 2.55627129e-02 3.52742672e-02
      -1.72381680e-02</_>
    <_>
      -6.54992685e-02 3.20957117e-02 2.72792056e-02 -3.91641585e-03
      -2.25398876e-02 7.82217016e-04 1.32640246e-02 -4.25176881e-03
      -3.37521289e-03</_>
    <_>
      -3.82960886e-02 -2.23334506e-02 1.38962111e-02 1.49700297e-02
      1.49650499e-02 -1.48265138e-02 7.46925920e-03 -8.20680801e-03
      8.63500033e-03</_>
    <_>
      -5.11592627e-02 3.19717154e-02 -2.34358031e-02 3.47060822e-02
      -4.01465222e-03 2.55622901e-02 2.63436455e-02 -1.42420437e-02
      1.81178991e-02</_>
    <_>
      -5.13442755e-02 -2.12090407e-02 -9.93364584e-03 -1.29545126e-02
      -1.62800902e-03 7.70682096e-03 5.98461879e-03 -3.03957990e-04
      -4.47806297e-03</_>
    <_>
      -1.55207654e-02 7.09082559e-02 -6.24946728e-02 -2.45043170e-02
      2.10945662e-02 2.36832388e-02 -9.69446823e-03 1.16476594e-02
      -1.14853494e-02</_>
    <_>
      -5.99158406e-02 3.21855061e-02 2.81457938e-02 -1.45564713e-02
      -1.34171853e-02 4.70958510e-03 2.08213998e-04 -6.55858312e-03
      -3.54826497e-03</_>
    <_>
      -6.16404973e-02 3.71387489e-02 4.05582897e-02 -1.02869971e-02
      -3.14036594e-03 4.15363302e-03 5.64649992e-04 -6.35419087e-03
      -2.96408404e-03</_>
    <_>
      -9.02831554e-03 9.67323929e-02 -6.88093156e-02 -1.50378502e-03
      -3.62362824e-02 -2.34876927e-02 -5.52118290e-03 -1.07370354e-02
      -1.21178459e-02</_>
    <_>
      -6.07056655e-02 3.52257527e-02 4.13351320e-02 -1.42749576e-02
      -2.82659102e-03 3.31288390e-03 1.63268903e-03 -5.41115995e-04
      -5.63145010e-03</_>
    <_>
      -5.68065345e-02 -5.55090420e-03 1.87609706e-03 -1.66427977e-02
      -1.30570279e-02 7.16562290e-03 2.21380102e-03 -1.41312994e-04
      -8.30670260e-03</_>
    <_>
      -6.22585155e-02 -1.58930495e-02 -2.74330494e-03 -7.34118512e-03
      -7.86868669e-03 7.37653393e-03 5.55618026e-04 -3.01099801e-03
      -6.41757390e-03</_>
    <_>
      -6.32488504e-02 4.37904224e-02 5.35446294e-02 -8.09948891e-03
      4.71174298e-03 -1.35527765e-02 3.94257903e-03 8.71206913e-03
      -9.12897009e-03</_>
    <_>
      -6.36043102e-02 3.53348851e-02 4.22985218e-02 -9.40859225e-03
      -4.83495416e-03 -8.01632460e-03 3.38514801e-03 1.07620296e-03
      -5.59158390e-03</_>
    <_>
      -6.77120015e-02 -1.74254067e-02 -4.40040091e-03 -8.24096426e-03
      -7.69525394e-03 5.50574623e-03 2.86732311e-03 -3.49189807e-03
      -6.69465680e-03</_>
    <_>
      -5.31177409e-02 -1.95460655e-02 -1.19561097e-03 -1.17093762e-02
      -6.55438798e-03 1.07932538e-02 1.32312102e-03 1.00320496e-03
      -2.83859810e-03</_>
    <_>
      1.95169240e-01 8.54182839e-02 2.34471839e-02 -1.07185759e-01
      -2.70655062e-02 -5.27956001e-02 3.24417092e-03 6.20635338e-02
      -1.64598208e-02</_>
    <_>
      -5.97012416e-02 -2.36785952e-02 1.53296001e-04 -9.73848626e-03
      1.75494328e-02 9.04471893e-03 1.57479346e-02 4.11678711e-03
      1.36656198e-03</_>
    <_>
      -4.69298735e-02 -2.93805618e-02 1.68272667e-02 2.39225905e-02
      -4.98062698e-03 1.63287148e-02 -1.15210001e-04 1.21082440e-02
      2.20185518e-02</_></uncompressed_support_vectors>
  <decision_functions>
    <_>
      <sv_count>1</sv_count>
      <rho>1.6555430418884498e-01</rho>
      <alpha>
        1.</alpha>
      <index>
        0</index></_></decision_functions></opencv_ml_svm>
</opencv_storage>
